#pragma once
#include <cstdarg>
namespace Eloquent {
    namespace ML {
        namespace Port {
            class RandomForest {
                public:
                    /**
                    * Predict class for features vector
                    */
                    int predict(float *x) {
                        uint8_t votes[2] = { 0 };
                        // tree #1
                        if (x[22] <= -75.56423950195312) {
                            if (x[114] <= -79.5146713256836) {
                                votes[1] += 1;
                            }

                            else {
                                if (x[78] <= -65.96109008789062) {
                                    if (x[29] <= -77.88756561279297) {
                                        if (x[30] <= -35.67663908004761) {
                                            votes[0] += 1;
                                        }

                                        else {
                                            votes[1] += 1;
                                        }
                                    }

                                    else {
                                        if (x[80] <= -40.09449863433838) {
                                            votes[0] += 1;
                                        }

                                        else {
                                            votes[1] += 1;
                                        }
                                    }
                                }

                                else {
                                    if (x[62] <= -60.96987533569336) {
                                        if (x[172] <= -67.16669082641602) {
                                            votes[0] += 1;
                                        }

                                        else {
                                            votes[0] += 1;
                                        }
                                    }

                                    else {
                                        if (x[223] <= -65.07138442993164) {
                                            votes[1] += 1;
                                        }

                                        else {
                                            votes[0] += 1;
                                        }
                                    }
                                }
                            }
                        }

                        else {
                            if (x[160] <= -66.22818374633789) {
                                if (x[34] <= -74.89318466186523) {
                                    if (x[136] <= -60.87333106994629) {
                                        if (x[117] <= -64.39370727539062) {
                                            votes[0] += 1;
                                        }

                                        else {
                                            votes[0] += 1;
                                        }
                                    }

                                    else {
                                        if (x[242] <= -69.88136291503906) {
                                            votes[1] += 1;
                                        }

                                        else {
                                            votes[0] += 1;
                                        }
                                    }
                                }

                                else {
                                    if (x[232] <= -78.49673080444336) {
                                        if (x[108] <= -73.93535232543945) {
                                            votes[1] += 1;
                                        }

                                        else {
                                            votes[0] += 1;
                                        }
                                    }

                                    else {
                                        if (x[247] <= -65.77930450439453) {
                                            votes[0] += 1;
                                        }

                                        else {
                                            votes[1] += 1;
                                        }
                                    }
                                }
                            }

                            else {
                                if (x[65] <= -78.38439559936523) {
                                    if (x[15] <= -65.22192764282227) {
                                        votes[0] += 1;
                                    }

                                    else {
                                        votes[1] += 1;
                                    }
                                }

                                else {
                                    if (x[190] <= -70.84392547607422) {
                                        if (x[38] <= -73.26668930053711) {
                                            votes[0] += 1;
                                        }

                                        else {
                                            votes[1] += 1;
                                        }
                                    }

                                    else {
                                        if (x[108] <= -62.14357566833496) {
                                            votes[1] += 1;
                                        }

                                        else {
                                            votes[0] += 1;
                                        }
                                    }
                                }
                            }
                        }

                        // tree #2
                        if (x[171] <= -60.90401840209961) {
                            if (x[137] <= -65.8720474243164) {
                                if (x[155] <= -77.89117813110352) {
                                    if (x[30] <= -37.90420627593994) {
                                        votes[0] += 1;
                                    }

                                    else {
                                        votes[1] += 1;
                                    }
                                }

                                else {
                                    if (x[88] <= -60.448299407958984) {
                                        if (x[192] <= -79.7651481628418) {
                                            votes[1] += 1;
                                        }

                                        else {
                                            votes[0] += 1;
                                        }
                                    }

                                    else {
                                        if (x[216] <= -61.215972900390625) {
                                            votes[1] += 1;
                                        }

                                        else {
                                            votes[0] += 1;
                                        }
                                    }
                                }
                            }

                            else {
                                if (x[150] <= -61.14975547790527) {
                                    if (x[157] <= -78.61448287963867) {
                                        if (x[80] <= -36.84221315383911) {
                                            votes[0] += 1;
                                        }

                                        else {
                                            votes[1] += 1;
                                        }
                                    }

                                    else {
                                        if (x[237] <= -71.17417907714844) {
                                            votes[1] += 1;
                                        }

                                        else {
                                            votes[1] += 1;
                                        }
                                    }
                                }

                                else {
                                    if (x[19] <= -61.43251609802246) {
                                        if (x[147] <= -61.32203674316406) {
                                            votes[1] += 1;
                                        }

                                        else {
                                            votes[0] += 1;
                                        }
                                    }

                                    else {
                                        votes[0] += 1;
                                    }
                                }
                            }
                        }

                        else {
                            if (x[92] <= -61.17458534240723) {
                                if (x[14] <= -63.22036361694336) {
                                    if (x[77] <= -78.13179779052734) {
                                        votes[1] += 1;
                                    }

                                    else {
                                        if (x[175] <= -77.25033187866211) {
                                            votes[1] += 1;
                                        }

                                        else {
                                            votes[0] += 1;
                                        }
                                    }
                                }

                                else {
                                    votes[1] += 1;
                                }
                            }

                            else {
                                votes[1] += 1;
                            }
                        }

                        // tree #3
                        if (x[154] <= -77.74783325195312) {
                            if (x[85] <= -77.6126823425293) {
                                if (x[196] <= -72.51580429077148) {
                                    votes[1] += 1;
                                }

                                else {
                                    votes[0] += 1;
                                }
                            }

                            else {
                                if (x[30] <= -37.48661708831787) {
                                    votes[0] += 1;
                                }

                                else {
                                    votes[1] += 1;
                                }
                            }
                        }

                        else {
                            if (x[146] <= -79.6697998046875) {
                                if (x[89] <= -76.68082046508789) {
                                    votes[0] += 1;
                                }

                                else {
                                    if (x[87] <= -78.71540832519531) {
                                        votes[0] += 1;
                                    }

                                    else {
                                        votes[1] += 1;
                                    }
                                }
                            }

                            else {
                                if (x[209] <= -64.29807662963867) {
                                    if (x[166] <= -78.75545883178711) {
                                        if (x[19] <= -78.18814468383789) {
                                            votes[0] += 1;
                                        }

                                        else {
                                            votes[1] += 1;
                                        }
                                    }

                                    else {
                                        if (x[229] <= -79.66676712036133) {
                                            votes[1] += 1;
                                        }

                                        else {
                                            votes[0] += 1;
                                        }
                                    }
                                }

                                else {
                                    if (x[120] <= -71.6200942993164) {
                                        if (x[173] <= -76.87496948242188) {
                                            votes[0] += 1;
                                        }

                                        else {
                                            votes[1] += 1;
                                        }
                                    }

                                    else {
                                        if (x[3] <= -66.29298782348633) {
                                            votes[0] += 1;
                                        }

                                        else {
                                            votes[1] += 1;
                                        }
                                    }
                                }
                            }
                        }

                        // tree #4
                        if (x[175] <= -66.93920516967773) {
                            if (x[30] <= -37.48522186279297) {
                                votes[0] += 1;
                            }

                            else {
                                votes[1] += 1;
                            }
                        }

                        else {
                            if (x[134] <= -78.92668533325195) {
                                if (x[241] <= -65.51360321044922) {
                                    if (x[198] <= -62.03071212768555) {
                                        votes[0] += 1;
                                    }

                                    else {
                                        votes[1] += 1;
                                    }
                                }

                                else {
                                    if (x[19] <= -66.446533203125) {
                                        votes[0] += 1;
                                    }

                                    else {
                                        votes[1] += 1;
                                    }
                                }
                            }

                            else {
                                if (x[143] <= -69.54555130004883) {
                                    if (x[69] <= -61.30255889892578) {
                                        if (x[153] <= -74.44762420654297) {
                                            votes[0] += 1;
                                        }

                                        else {
                                            votes[1] += 1;
                                        }
                                    }

                                    else {
                                        if (x[164] <= -63.33498001098633) {
                                            votes[0] += 1;
                                        }

                                        else {
                                            votes[1] += 1;
                                        }
                                    }
                                }

                                else {
                                    if (x[84] <= -65.41973495483398) {
                                        if (x[80] <= -39.969679832458496) {
                                            votes[0] += 1;
                                        }

                                        else {
                                            votes[1] += 1;
                                        }
                                    }

                                    else {
                                        if (x[204] <= -61.31408882141113) {
                                            votes[1] += 1;
                                        }

                                        else {
                                            votes[0] += 1;
                                        }
                                    }
                                }
                            }
                        }

                        // tree #5
                        if (x[82] <= -60.59379196166992) {
                            if (x[31] <= -37.53451681137085) {
                                votes[0] += 1;
                            }

                            else {
                                votes[1] += 1;
                            }
                        }

                        else {
                            if (x[31] <= -38.35180950164795) {
                                votes[0] += 1;
                            }

                            else {
                                votes[1] += 1;
                            }
                        }

                        // tree #6
                        if (x[124] <= -62.13487243652344) {
                            if (x[31] <= -37.537070751190186) {
                                votes[0] += 1;
                            }

                            else {
                                votes[1] += 1;
                            }
                        }

                        else {
                            if (x[164] <= -61.71084213256836) {
                                if (x[192] <= -79.24142456054688) {
                                    votes[1] += 1;
                                }

                                else {
                                    if (x[130] <= -61.57523727416992) {
                                        if (x[116] <= -60.64274024963379) {
                                            votes[0] += 1;
                                        }

                                        else {
                                            votes[1] += 1;
                                        }
                                    }

                                    else {
                                        if (x[113] <= -79.74261093139648) {
                                            votes[0] += 1;
                                        }

                                        else {
                                            votes[1] += 1;
                                        }
                                    }
                                }
                            }

                            else {
                                if (x[233] <= -75.9578857421875) {
                                    votes[0] += 1;
                                }

                                else {
                                    if (x[62] <= -76.48339462280273) {
                                        votes[0] += 1;
                                    }

                                    else {
                                        votes[1] += 1;
                                    }
                                }
                            }
                        }

                        // tree #7
                        if (x[61] <= -61.65147018432617) {
                            if (x[50] <= -79.0386848449707) {
                                if (x[71] <= -72.21384048461914) {
                                    if (x[134] <= -66.89458847045898) {
                                        if (x[136] <= -65.49507904052734) {
                                            votes[1] += 1;
                                        }

                                        else {
                                            votes[0] += 1;
                                        }
                                    }

                                    else {
                                        votes[0] += 1;
                                    }
                                }

                                else {
                                    if (x[66] <= -60.82118225097656) {
                                        if (x[238] <= -78.08014297485352) {
                                            votes[1] += 1;
                                        }

                                        else {
                                            votes[0] += 1;
                                        }
                                    }

                                    else {
                                        votes[1] += 1;
                                    }
                                }
                            }

                            else {
                                if (x[212] <= -73.9344367980957) {
                                    if (x[134] <= -79.16865921020508) {
                                        if (x[12] <= -76.79668807983398) {
                                            votes[1] += 1;
                                        }

                                        else {
                                            votes[0] += 1;
                                        }
                                    }

                                    else {
                                        if (x[174] <= -73.83119201660156) {
                                            votes[0] += 1;
                                        }

                                        else {
                                            votes[1] += 1;
                                        }
                                    }
                                }

                                else {
                                    if (x[247] <= -62.76382064819336) {
                                        if (x[88] <= -66.0103874206543) {
                                            votes[1] += 1;
                                        }

                                        else {
                                            votes[0] += 1;
                                        }
                                    }

                                    else {
                                        if (x[243] <= -69.96342849731445) {
                                            votes[0] += 1;
                                        }

                                        else {
                                            votes[1] += 1;
                                        }
                                    }
                                }
                            }
                        }

                        else {
                            if (x[184] <= -63.7017936706543) {
                                if (x[243] <= -78.95420837402344) {
                                    if (x[229] <= -76.62606048583984) {
                                        votes[0] += 1;
                                    }

                                    else {
                                        votes[1] += 1;
                                    }
                                }

                                else {
                                    if (x[76] <= -62.15250587463379) {
                                        if (x[145] <= -61.71432304382324) {
                                            votes[0] += 1;
                                        }

                                        else {
                                            votes[1] += 1;
                                        }
                                    }

                                    else {
                                        if (x[167] <= -74.58090209960938) {
                                            votes[0] += 1;
                                        }

                                        else {
                                            votes[1] += 1;
                                        }
                                    }
                                }
                            }

                            else {
                                if (x[58] <= -69.93379211425781) {
                                    if (x[183] <= -64.34609985351562) {
                                        votes[1] += 1;
                                    }

                                    else {
                                        votes[0] += 1;
                                    }
                                }

                                else {
                                    if (x[218] <= -65.98349380493164) {
                                        votes[1] += 1;
                                    }

                                    else {
                                        if (x[64] <= -77.79825973510742) {
                                            votes[1] += 1;
                                        }

                                        else {
                                            votes[0] += 1;
                                        }
                                    }
                                }
                            }
                        }

                        // tree #8
                        if (x[30] <= -37.5134220123291) {
                            votes[0] += 1;
                        }

                        else {
                            votes[1] += 1;
                        }

                        // tree #9
                        if (x[12] <= -70.1767807006836) {
                            if (x[40] <= -69.23702621459961) {
                                if (x[80] <= -40.03266906738281) {
                                    votes[0] += 1;
                                }

                                else {
                                    votes[1] += 1;
                                }
                            }

                            else {
                                if (x[31] <= -37.56959819793701) {
                                    votes[0] += 1;
                                }

                                else {
                                    votes[1] += 1;
                                }
                            }
                        }

                        else {
                            if (x[80] <= -39.96104335784912) {
                                votes[0] += 1;
                            }

                            else {
                                votes[1] += 1;
                            }
                        }

                        // tree #10
                        if (x[109] <= -71.98592758178711) {
                            if (x[224] <= -78.19221496582031) {
                                if (x[110] <= -73.79141616821289) {
                                    votes[0] += 1;
                                }

                                else {
                                    if (x[45] <= -65.8815803527832) {
                                        if (x[249] <= -65.04052352905273) {
                                            votes[1] += 1;
                                        }

                                        else {
                                            votes[0] += 1;
                                        }
                                    }

                                    else {
                                        votes[0] += 1;
                                    }
                                }
                            }

                            else {
                                if (x[239] <= -71.13491439819336) {
                                    if (x[94] <= -61.96302604675293) {
                                        if (x[13] <= -78.96535873413086) {
                                            votes[0] += 1;
                                        }

                                        else {
                                            votes[1] += 1;
                                        }
                                    }

                                    else {
                                        if (x[80] <= -40.07036018371582) {
                                            votes[0] += 1;
                                        }

                                        else {
                                            votes[1] += 1;
                                        }
                                    }
                                }

                                else {
                                    if (x[86] <= -74.26368713378906) {
                                        if (x[31] <= -38.28619956970215) {
                                            votes[0] += 1;
                                        }

                                        else {
                                            votes[1] += 1;
                                        }
                                    }

                                    else {
                                        if (x[112] <= -78.23943710327148) {
                                            votes[0] += 1;
                                        }

                                        else {
                                            votes[1] += 1;
                                        }
                                    }
                                }
                            }
                        }

                        else {
                            if (x[193] <= -66.16919708251953) {
                                if (x[184] <= -70.35064315795898) {
                                    if (x[77] <= -72.11071395874023) {
                                        if (x[145] <= -79.51102447509766) {
                                            votes[0] += 1;
                                        }

                                        else {
                                            votes[1] += 1;
                                        }
                                    }

                                    else {
                                        if (x[37] <= -72.16961288452148) {
                                            votes[0] += 1;
                                        }

                                        else {
                                            votes[1] += 1;
                                        }
                                    }
                                }

                                else {
                                    if (x[45] <= -72.86766815185547) {
                                        if (x[80] <= -39.833444595336914) {
                                            votes[0] += 1;
                                        }

                                        else {
                                            votes[1] += 1;
                                        }
                                    }

                                    else {
                                        if (x[165] <= -73.37840270996094) {
                                            votes[0] += 1;
                                        }

                                        else {
                                            votes[1] += 1;
                                        }
                                    }
                                }
                            }

                            else {
                                if (x[20] <= -77.75530242919922) {
                                    if (x[203] <= -61.58886909484863) {
                                        if (x[172] <= -65.33726501464844) {
                                            votes[1] += 1;
                                        }

                                        else {
                                            votes[0] += 1;
                                        }
                                    }

                                    else {
                                        votes[0] += 1;
                                    }
                                }

                                else {
                                    if (x[126] <= -70.11958694458008) {
                                        if (x[185] <= -78.95134353637695) {
                                            votes[1] += 1;
                                        }

                                        else {
                                            votes[0] += 1;
                                        }
                                    }

                                    else {
                                        if (x[180] <= -79.26248550415039) {
                                            votes[1] += 1;
                                        }

                                        else {
                                            votes[0] += 1;
                                        }
                                    }
                                }
                            }
                        }

                        // return argmax of votes
                        uint8_t classIdx = 0;
                        float maxVotes = votes[0];

                        for (uint8_t i = 1; i < 2; i++) {
                            if (votes[i] > maxVotes) {
                                classIdx = i;
                                maxVotes = votes[i];
                            }
                        }

                        return classIdx;
                    }

                protected:
                };
            }
        }
    }